digraph Tree {
node [shape=box] ;
0 [label="familiarity <= 0.582\nmse = 0.064\nsamples = 9000\nvalue = 0.195"] ;
1 [label="year <= 1962.5\nmse = 0.034\nsamples = 4952\nvalue = 0.109"] ;
0 -> 1 [labeldistance=2.5, labelangle=45, headlabel="True"] ;
2 [label="artist.hotttnesss <= 0.326\nmse = 0.022\nsamples = 3425\nvalue = 0.072"] ;
1 -> 2 ;
3 [label="familiarity <= 0.419\nmse = 0.011\nsamples = 1777\nvalue = 0.038"] ;
2 -> 3 ;
4 [label="familiarity <= 0.009\nmse = 0.009\nsamples = 1017\nvalue = 0.029"] ;
3 -> 4 ;
5 [label="mse = 0.045\nsamples = 14\nvalue = 0.138"] ;
4 -> 5 ;
6 [label="mse = 0.008\nsamples = 1003\nvalue = 0.028"] ;
4 -> 6 ;
7 [label="familiarity <= 0.42\nmse = 0.014\nsamples = 760\nvalue = 0.05"] ;
3 -> 7 ;
8 [label="mse = 0.035\nsamples = 17\nvalue = 0.138"] ;
7 -> 8 ;
9 [label="mse = 0.013\nsamples = 743\nvalue = 0.048"] ;
7 -> 9 ;
10 [label="familiarity <= 0.504\nmse = 0.032\nsamples = 1648\nvalue = 0.108"] ;
2 -> 10 ;
11 [label="tatums_start <= 0.757\nmse = 0.026\nsamples = 831\nvalue = 0.089"] ;
10 -> 11 ;
12 [label="mse = 0.027\nsamples = 779\nvalue = 0.094"] ;
11 -> 12 ;
13 [label="mse = 0.007\nsamples = 52\nvalue = 0.02"] ;
11 -> 13 ;
14 [label="duration <= 182.948\nmse = 0.037\nsamples = 817\nvalue = 0.127"] ;
10 -> 14 ;
15 [label="mse = 0.032\nsamples = 220\nvalue = 0.089"] ;
14 -> 15 ;
16 [label="mse = 0.039\nsamples = 597\nvalue = 0.141"] ;
14 -> 16 ;
17 [label="artist.hotttnesss <= 0.335\nmse = 0.049\nsamples = 1527\nvalue = 0.192"] ;
1 -> 17 ;
18 [label="artist.hotttnesss <= 0.281\nmse = 0.03\nsamples = 507\nvalue = 0.115"] ;
17 -> 18 ;
19 [label="familiarity <= 0.543\nmse = 0.017\nsamples = 161\nvalue = 0.066"] ;
18 -> 19 ;
20 [label="mse = 0.015\nsamples = 158\nvalue = 0.06"] ;
19 -> 20 ;
21 [label="mse = 0.018\nsamples = 3\nvalue = 0.411"] ;
19 -> 21 ;
22 [label="year <= 1985.5\nmse = 0.034\nsamples = 346\nvalue = 0.138"] ;
18 -> 22 ;
23 [label="mse = 0.032\nsamples = 35\nvalue = 0.22"] ;
22 -> 23 ;
24 [label="mse = 0.033\nsamples = 311\nvalue = 0.129"] ;
22 -> 24 ;
25 [label="loudness <= -11.808\nmse = 0.055\nsamples = 1020\nvalue = 0.23"] ;
17 -> 25 ;
26 [label="duration <= 421.76\nmse = 0.046\nsamples = 361\nvalue = 0.176"] ;
25 -> 26 ;
27 [label="mse = 0.045\nsamples = 345\nvalue = 0.168"] ;
26 -> 27 ;
28 [label="mse = 0.041\nsamples = 16\nvalue = 0.342"] ;
26 -> 28 ;
29 [label="artist.hotttnesss <= 0.524\nmse = 0.057\nsamples = 659\nvalue = 0.259"] ;
25 -> 29 ;
30 [label="mse = 0.056\nsamples = 649\nvalue = 0.255"] ;
29 -> 30 ;
31 [label="mse = 0.043\nsamples = 10\nvalue = 0.529"] ;
29 -> 31 ;
32 [label="year <= 1985.5\nmse = 0.08\nsamples = 4048\nvalue = 0.302"] ;
0 -> 32 [labeldistance=2.5, labelangle=-45, headlabel="False"] ;
33 [label="familiarity <= 0.822\nmse = 0.063\nsamples = 1743\nvalue = 0.211"] ;
32 -> 33 ;
34 [label="year <= 1970.5\nmse = 0.057\nsamples = 1568\nvalue = 0.192"] ;
33 -> 34 ;
35 [label="loudness <= -4.149\nmse = 0.05\nsamples = 1321\nvalue = 0.176"] ;
34 -> 35 ;
36 [label="mse = 0.049\nsamples = 1270\nvalue = 0.17"] ;
35 -> 36 ;
37 [label="mse = 0.054\nsamples = 51\nvalue = 0.337"] ;
35 -> 37 ;
38 [label="artist.hotttnesss <= 0.631\nmse = 0.081\nsamples = 247\nvalue = 0.279"] ;
34 -> 38 ;
39 [label="mse = 0.08\nsamples = 241\nvalue = 0.271"] ;
38 -> 39 ;
40 [label="mse = 0.025\nsamples = 6\nvalue = 0.616"] ;
38 -> 40 ;
41 [label="duration <= 297.247\nmse = 0.091\nsamples = 175\nvalue = 0.378"] ;
33 -> 41 ;
42 [label="familiarity <= 0.873\nmse = 0.08\nsamples = 132\nvalue = 0.44"] ;
41 -> 42 ;
43 [label="mse = 0.079\nsamples = 92\nvalue = 0.383"] ;
42 -> 43 ;
44 [label="mse = 0.056\nsamples = 40\nvalue = 0.573"] ;
42 -> 44 ;
45 [label="bars_start <= 0.491\nmse = 0.077\nsamples = 43\nvalue = 0.187"] ;
41 -> 45 ;
46 [label="mse = 0.0\nsamples = 11\nvalue = 0.0"] ;
45 -> 46 ;
47 [label="mse = 0.088\nsamples = 32\nvalue = 0.251"] ;
45 -> 47 ;
48 [label="familiarity <= 0.627\nmse = 0.081\nsamples = 2305\nvalue = 0.37"] ;
32 -> 48 ;
49 [label="loudness <= -14.545\nmse = 0.061\nsamples = 535\nvalue = 0.302"] ;
48 -> 49 ;
50 [label="artist.hotttnesss <= 0.37\nmse = 0.038\nsamples = 87\nvalue = 0.176"] ;
49 -> 50 ;
51 [label="mse = 0.004\nsamples = 11\nvalue = 0.02"] ;
50 -> 51 ;
52 [label="mse = 0.039\nsamples = 76\nvalue = 0.199"] ;
50 -> 52 ;
53 [label="artist.hotttnesss <= 0.373\nmse = 0.061\nsamples = 448\nvalue = 0.326"] ;
49 -> 53 ;
54 [label="mse = 0.059\nsamples = 100\nvalue = 0.251"] ;
53 -> 54 ;
55 [label="mse = 0.06\nsamples = 348\nvalue = 0.348"] ;
53 -> 55 ;
56 [label="loudness <= -7.898\nmse = 0.085\nsamples = 1770\nvalue = 0.391"] ;
48 -> 56 ;
57 [label="duration <= 30.367\nmse = 0.082\nsamples = 714\nvalue = 0.351"] ;
56 -> 57 ;
58 [label="mse = 0.005\nsamples = 11\nvalue = 0.023"] ;
57 -> 58 ;
59 [label="mse = 0.081\nsamples = 703\nvalue = 0.356"] ;
57 -> 59 ;
60 [label="artist.hotttnesss <= 0.583\nmse = 0.086\nsamples = 1056\nvalue = 0.417"] ;
56 -> 60 ;
61 [label="mse = 0.073\nsamples = 798\nvalue = 0.437"] ;
60 -> 61 ;
62 [label="mse = 0.123\nsamples = 258\nvalue = 0.357"] ;
60 -> 62 ;
}